compounds_are	0.014843 0.25034 0.42873 0.050738 0.039811 -0.15457 0.003011 0.41803 0.20778 0.46543 -0.24176 0.22391 -0.1399 0.53652 0.028231 0.42534 0.061364 -0.30871 -0.25265 0.00041188 0.43263 0.17677 0.053765 -0.42987 -0.611 -0.66982 0.56727 -0.047341 -0.24468 -0.40084 0.17087 -0.4198 -0.29269 -0.089829 -0.076481 -0.037211 0.49675 0.14827 -0.13868 -0.15595 -0.014764 0.23044 -0.91394 0.58372 -0.14173 0.43548 -0.090986 -0.15094 -0.006198 0.75683 0.2694 1.2026 -0.11039 -0.18653 -0.27366 -0.24675 -0.34877 0.39415 -0.47436 -0.33717 0.052518 -0.88408 0.23295 -0.0082845 1.0831 0.20729 -0.46874 -0.1847 0.08203 0.5367 -0.37923 0.32108 -0.083781 0.25385 -0.44826 -0.68092 -0.21635 -0.73438 -0.61049 -0.44722 -0.30281 -0.40887 -0.2322 0.25483 -0.44789 0.21587 -0.46388 -0.14219 -0.21722 0.14396 0.19462 0.30617 0.33954 0.10634 -0.35786 0.58895 1.1665 -0.52039 -0.31775 0.31925	-0.062272 0.38918 0.4393 0.1709 -0.092612 -0.3934 0.35209 0.76934 0.30135 0.48924 -0.59159 -0.18811 0.0052369 0.40011 0.22818 0.2794 0.38972 -0.32033 -0.27261 -0.015437 0.77577 0.13146 0.042879 -0.19083 -0.7628 -0.29016 0.69587 -0.014416 -0.37005 -0.20846 0.05251 -0.33922 -0.22121 -0.22725 -0.21845 -0.13796 0.57586 -0.059112 -0.027628 -0.1116 0.085611 -0.11139 -0.98 0.95281 0.06665 0.78359 0.22169 -0.091459 -0.20341 0.73298 0.27297 1.1077 0.038117 -0.21976 -0.4265 -0.11157 -0.24281 0.43371 -0.37597 -0.58753 -0.13818 -0.84985 0.15408 0.0019958 0.88906 0.15785 -0.71829 -0.45041 0.15612 0.22939 -0.24063 0.28277 -0.060686 0.36016 -0.57816 -0.75232 -0.63738 -0.68027 -0.42856 -0.32952 -0.29079 -0.25298 -0.41756 0.1339 -0.48784 0.40779 -0.73323 -0.077137 -0.052039 0.0097106 0.23904 0.5008 0.3759 0.57438 -0.74613 0.7247 1.268 -0.47458 -0.59655 0.61093	-0.32587 0.0247 0.25749 -0.066667 -0.16531 0.2882 -0.1561 -0.31803 -0.012209 0.35596 0.27123 0.46317 -0.018583 0.36529 0.075406 0.74931 -0.13264 -0.3323 -0.35172 -0.05977 -0.73545 -0.098268 0.15572 -0.38212 0.28119 -0.34411 -0.13492 0.28622 -0.13416 0.20351 0.19159 -0.18913 0.052471 -0.0062901 -0.24632 -0.016163 0.07117 0.43498 -0.46219 -0.47159 -0.51068 0.081807 -0.060914 0.19135 -0.34262 0.40638 -0.047664 0.15729 -0.02326 0.1643 -0.30869 0.64629 -0.1525 0.2093 0.30755 -0.45819 -0.26634 0.02693 -0.094591 0.29988 0.39159 -0.18018 0.57059 -0.41472 0.47552 -0.11261 0.22911 0.2996 -0.081061 -0.023066 -0.28294 0.28002 0.33483 0.18197 -0.95354 -0.25805 -0.15313 -0.91293 -0.42935 -0.17827 -0.34386 -0.73099 -0.23697 0.40507 -0.69309 0.55257 -0.41138 -0.55493 -0.46702 0.45923 0.094348 0.0058056 -0.13897 0.22181 -0.094766 0.034141 0.87054 -0.13395 0.02102 0.21714
feat_which	0.34576 -0.054151 0.31029 0.14994 0.44593 0.31466 -0.032286 -0.15658 -0.45052 0.0019245 -0.064604 0.29706 -0.064267 0.40754 -0.022235 -0.47989 -0.16264 -0.043917 0.29378 -0.32432 0.23825 -0.38771 0.066416 0.23506 -0.39307 0.17107 0.30815 0.024657 -0.38162 0.16787 0.20938 0.12599 -0.25059 -0.3324 0.16033 0.12594 0.22767 0.59555 0.47442 0.10281 -0.1213 0.1809 -0.042365 -0.039341 -0.33188 0.021322 0.53655 -0.012755 0.12556 0.72763 0.47534 0.57102 0.19131 -0.14129 -0.16141 0.047249 0.037262 -0.37046 0.15407 0.10738 0.26865 0.044957 0.21725 0.018058 0.54846 0.097199 -0.24862 -0.21275 0.079319 -0.014933 0.0012451 0.20608 0.29003 -0.0055517 0.4787 -0.37636 0.61278 -0.34451 0.22793 -0.036951 -0.10393 -0.19476 0.18988 -0.093218 0.056343 -0.49736 -0.21034 -0.074487 0.34182 0.096363 -0.11355 0.17096 -0.34971 0.30522 -0.33982 -0.37785 0.076718 0.23835 -0.32387 0.32506	0.048507 0.26105 0.21171 0.075383 0.0076983 0.26887 0.60598 -0.73066 -0.73899 -0.039937 0.15448 0.36255 0.34089 0.28362 -0.36241 -0.089921 -0.24044 0.13497 -0.017449 -0.080644 0.16728 -1.0717 0.37056 0.30766 -0.48107 0.31758 0.38434 0.11901 -0.12213 0.43176 0.4738 0.16153 -0.1608 -0.068802 0.12821 -0.003718 0.513 0.62794 0.31064 -0.067835 0.072049 -0.22059 0.14045 -0.039013 -0.31457 0.36193 0.68828 0.49053 0.065586 0.37807 0.50271 0.30062 0.73623 -0.55205 0.027108 -0.29563 -0.28787 -0.3545 0.065658 0.18193 -0.18994 -0.43054 0.16107 0.040496 0.45806 0.4379 -0.26689 -0.20236 0.24724 0.042423 -0.36528 0.78075 0.097461 0.3987 0.56354 -0.65928 0.2586 -0.43184 0.53911 -0.093762 -0.30692 -0.44551 0.36966 0.07334 0.26886 -0.86011 -0.19481 -0.11886 0.35137 -0.63787 -0.17572 0.30721 -0.28891 0.12736 -0.43054 -0.39646 0.4299 0.36725 -0.022688 -0.18555	-0.10845 -0.21833 0.50339 0.028198 0.26476 0.3129 0.1338 0.14074 -0.020119 -0.029822 0.11275 0.213 -0.04639 -0.22685 0.24475 -0.058591 -0.13621 0.13784 -0.21219 -0.17112 -0.054701 -0.065303 -0.0067142 0.064961 -0.32125 0.15263 0.26689 0.079043 -0.42317 0.11392 -0.048855 0.055919 -0.1737 -0.25295 -0.01194 -0.27829 0.056895 0.2505 0.28895 0.10442 -0.45861 -0.11845 0.003313 -0.021442 -0.21835 0.034844 0.29181 0.12422 0.038726 0.59819 0.075121 0.54266 -0.16809 0.21338 -0.019764 0.056977 0.064841 -0.14861 0.409 0.2719 0.2751 0.052253 0.40752 0.0064885 0.32623 -0.27808 0.02 -0.080413 -0.11839 -0.35255 0.0042147 0.091553 0.4018 -0.22651 -0.15446 -0.091166 0.27548 -0.20644 -0.10223 -0.15146 0.17058 -0.14562 0.085103 0.012913 -0.27224 0.53329 -0.31859 -0.17303 -0.097659 0.39784 0.14315 -0.07947 -0.39019 0.41305 -0.092821 0.039042 0.17045 0.047646 -0.20286 0.48928
of_vast	-0.43485 -0.2523 0.47297 -0.039733 -0.0075544 0.55069 0.65877 -0.0266 0.72055 -0.090115 -0.48655 0.23577 -0.37013 -0.49335 -0.53379 0.15162 -0.12152 0.30073 -0.068383 -0.4151 0.092909 -0.052721 0.23382 -0.46317 -0.086255 -0.22001 0.62426 0.22787 0.20956 -0.079244 0.057528 -0.30672 -0.23659 0.35048 0.021232 -0.3443 -0.25599 0.38417 0.089701 -0.01044 -0.50181 -0.1653 -0.060819 0.43272 -0.6436 0.17665 0.0080376 -0.38854 -0.36273 0.3744 0.26334 0.26526 0.13431 0.52478 -0.052479 -0.063753 0.26022 -0.31665 -0.41414 -0.42249 -0.06995 0.33307 0.28536 0.58674 0.041745 -0.43855 0.26388 0.079878 0.17895 0.57825 -0.47401 0.45176 0.48862 0.47329 -0.24465 -0.68189 0.34784 -0.57098 0.10181 0.35284 0.089535 0.35561 0.093702 -0.29671 -0.74396 -0.019654 -0.39228 -0.69646 0.50652 0.4287 0.34976 0.0087805 -0.73531 0.22185 0.19546 0.060359 0.28933 -0.38604 -0.64597 0.672	-0.13855 -0.060614 0.4894 -0.067053 0.06923 0.16158 0.14456 -0.2144 -0.048123 -0.027331 -0.18381 0.040206 -0.17925 -0.12583 0.041649 0.16407 -0.34696 -0.10823 -0.24075 -0.30921 -0.36951 -0.24936 0.3232 0.022648 0.10621 -0.14916 0.13625 0.065254 -0.21965 0.4461 0.22157 -0.30448 0.14653 -0.13559 -0.075539 -0.42604 -0.090144 0.18994 0.099372 -0.019384 -0.40205 -0.4483 -0.014935 0.12182 -0.23274 0.071137 0.059328 -0.26018 -0.27293 0.10942 0.13541 0.58901 0.15981 0.22147 0.010005 -0.26938 -0.25736 -0.12156 0.025539 -0.06615 0.087484 0.07195 0.15838 0.11322 0.19972 -0.58399 0.045842 -0.10177 0.0022455 -0.043859 -0.0933 0.12858 0.026775 0.21292 -0.43976 -0.12893 0.046592 -0.18443 0.23791 0.25345 0.012558 -0.25598 0.0093168 -0.1085 -0.37101 0.37749 -0.36105 -0.65802 -0.1507 0.16326 0.2917 -0.012544 -0.43884 0.20173 -0.20672 0.20558 -0.046879 -0.13971 -0.21737 0.58829	-0.46982 -0.31833 0.36345 0.050146 0.091421 0.23575 0.35188 0.083625 0.2643 -0.064969 -0.35465 0.53069 -0.13915 -0.50732 -0.56651 -0.072423 0.11061 0.29889 -0.082478 -0.38542 0.29244 0.11973 -0.036701 -0.33992 -0.0010696 -0.22281 0.44527 -0.0059645 0.31654 -0.07217 0.042624 -0.065315 -0.25453 -0.021858 0.0024844 -0.25501 -0.28747 0.19844 0.093071 0.044636 -0.039104 0.15086 0.074325 0.4585 -0.42135 0.069771 0.4512 0.18695 -0.23297 0.57297 0.28522 -0.030817 0.17933 0.20575 0.10098 0.25013 0.2894 0.053312 -0.035741 -0.10528 0.25664 0.22958 0.11731 0.028223 0.27484 -0.17165 0.37534 0.21197 -0.36095 0.33359 -0.50434 0.20767 0.699 0.44496 -0.00041478 -0.58924 0.57071 -0.64068 -0.14408 0.20111 0.079375 0.29577 0.19634 -0.27405 -0.40592 0.00034094 -0.3688 -0.26614 0.5393 0.046885 0.061767 0.19024 -0.59146 0.196 0.19209 0.0055886 0.29291 -0.31187 -0.59639 0.34636
ireland_until	0.30965 0.32864 0.076553 -0.051944 0.61167 0.47862 -0.45369 0.54246 -0.058319 -0.15989 0.35821 -0.040092 -0.33479 0.29028 0.24349 -0.12371 -0.38643 -0.09584 -0.1961 -0.13233 0.1911 -0.38686 -0.24781 -0.38431 -0.10199 -0.84835 0.39026 -0.017743 0.51838 0.018069 -0.03181 -0.68159 0.40132 -0.50302 0.07537 -0.82944 0.10211 0.13594 0.70931 0.10806 0.19142 0.054907 0.22312 -0.41585 -0.45489 0.5804 -0.27937 0.07045 0.15043 -0.0049435 -0.28055 0.38685 -0.34428 0.34622 0.19848 0.17513 -0.13097 -0.33693 0.18446 0.25886 -0.096588 0.40812 0.2345 -0.15535 0.37042 -0.090507 -0.038524 0.36774 -0.46489 -0.074465 0.19408 0.60781 -0.41823 -0.47704 -0.14481 -0.92447 0.011197 -0.57146 0.56505 -0.20455 -0.83607 -0.037902 0.023132 -0.30012 -0.23169 -0.15069 -0.53521 0.59667 -0.0172 -0.42209 -0.2223 0.5206 -0.7458 0.75355 -0.32649 -0.07144 -0.21247 0.18921 -0.67188 0.16465	0.38747 0.60828 0.11403 0.15679 0.63444 0.17967 -0.19027 0.41348 -0.17412 -0.31993 0.18654 0.0034478 -0.10146 0.40511 0.17357 -0.15916 -0.27781 0.1119 -0.019178 0.044317 0.4141 -0.26612 -0.22345 -0.28234 -0.4541 -0.89111 0.044177 -0.14945 0.44487 0.059765 0.24236 -0.57093 0.30696 -0.75042 -0.028867 -1.0486 0.20339 0.089823 0.40095 -0.010815 -0.23982 0.13496 0.40512 -0.56073 -0.29866 0.28025 -0.046479 0.32953 -0.014853 0.16622 -0.12386 0.22534 -0.43444 0.55789 0.45938 0.075144 -0.10639 -0.14284 0.21265 -0.18598 0.33181 0.37982 0.062281 -0.33609 -0.097201 -0.3989 -0.31385 0.89425 -0.52534 -0.13014 0.079135 0.67095 -0.5222 -0.24298 -0.34557 -0.94116 -0.1238 -0.47522 0.26248 -0.48634 -0.96891 0.17063 0.18885 0.0057305 -0.27287 0.22962 -0.42762 0.72016 0.23543 -0.75923 -0.0042852 0.81916 -0.79201 0.78843 -0.10386 0.077109 -0.28294 -0.051365 -0.57593 0.20454	0.046046 -0.12459 0.091802 -0.13306 0.53161 0.57953 -0.19349 0.068671 -0.11974 0.093539 0.058596 0.04239 -0.54556 -0.11531 0.23794 -0.018566 -0.4069 -0.10819 -0.11284 -0.054759 -0.28328 -0.34186 -0.3124 0.030698 0.20693 -0.22444 0.25127 0.29731 0.22653 0.0056902 -0.053251 -0.056039 0.19322 -0.21863 0.13571 -0.17588 -0.047309 0.013558 0.81048 0.049136 0.37596 -0.28218 -0.0075999 0.32584 -0.15153 0.4423 -0.14978 -0.051875 0.22718 0.15033 0.067635 0.48571 -0.34554 0.17919 -0.015544 0.00066498 -0.19922 -0.14517 0.3935 0.49389 -0.33315 0.34535 0.32482 0.011883 0.68625 0.38579 0.32976 -0.51289 -0.055923 -0.333 -0.061842 0.062853 -0.017945 -0.32944 -0.07205 -0.51079 0.10832 -0.47077 0.16666 -0.072504 -0.15301 -0.35029 -0.15209 -0.36557 0.033122 -0.52969 -0.46517 -0.10059 -0.027286 0.29449 -0.14289 0.30223 -0.24587 0.067525 -0.31751 -0.16415 0.25792 0.070708 -0.40907 0.37247
they_hold	0.29209 -0.22807 0.16948 -0.091649 0.19337 0.13728 0.24533 0.16138 -0.51713 0.34983 0.18372 -0.10955 -0.16885 0.58556 0.22926 -0.0051636 -0.38167 -0.043365 -0.51448 -0.24711 0.2086 -0.093917 -0.071203 0.23153 0.24907 -0.58723 -0.2869 -0.17761 -0.0016624 0.2633 -0.028268 0.33111 -0.29038 -0.069654 0.42563 0.087645 -0.15282 0.20224 0.011437 -0.35415 0.19072 0.22557 0.089337 0.24756 -0.48633 0.17636 0.061582 -0.015718 -0.41642 0.3839 0.12142 0.3761 0.11174 0.12069 0.47997 -0.67872 -0.17784 -0.21247 0.27428 0.064815 0.15265 0.12018 0.36915 -0.39464 0.81415 0.062789 0.2397 0.23196 0.034912 0.082994 -0.091691 0.17013 0.40017 0.0034961 -0.28096 -0.21396 -0.018035 -0.92766 0.071715 -0.2841 -0.13221 0.15378 0.32671 0.18077 -0.1873 0.24667 -0.47875 -0.20102 0.37381 0.20651 0.12615 0.28508 -0.21392 0.29088 0.2148 -0.28917 0.41418 -0.50841 -0.14997 -0.13849	0.20011 -0.31818 0.09087 0.078218 0.16679 0.14078 0.073591 0.025223 -0.43887 0.34981 -0.09976 0.029817 -0.19003 0.11244 -0.068141 0.031386 -0.26048 0.035953 -0.17969 -0.15723 -0.19938 0.07596 -0.22647 -0.23021 -0.065938 -0.078254 -0.15938 0.087866 -0.094027 -0.11573 -0.092442 0.084614 0.30215 -0.10204 0.3489 -0.17389 0.1281 0.43784 0.047158 -0.42872 0.088121 0.14894 -0.060184 0.21752 -0.020779 0.27533 0.37142 -0.1972 0.056397 0.42178 0.22764 0.2724 -0.088423 0.10122 0.12592 0.16266 0.11145 -0.14753 0.47766 0.073157 0.098326 0.069605 0.38165 -0.28927 0.6482 -0.014422 0.22762 -0.27939 0.25376 -0.058675 -0.12563 0.2114 0.38998 -0.1044 -0.16719 -0.23973 -0.027263 -0.75303 0.059241 -0.32322 -0.13594 -0.18582 -0.12625 0.53012 -0.059003 0.22861 -0.5189 -0.029781 0.098042 0.14774 0.067354 0.39354 -0.30946 0.24251 0.059588 -0.27564 0.53707 -0.27272 -0.25275 0.23727	0.15701 -0.037412 -0.11343 -0.33068 0.05873 0.35145 0.50212 -0.32639 -0.50288 0.25342 -0.031247 0.03006 -0.066817 0.1037 0.45945 0.029487 -0.21148 0.071675 -0.15745 0.089329 0.14628 -0.094694 0.044409 0.30773 0.54549 -0.084889 -0.17629 0.030086 -0.15317 -0.13689 -0.042138 0.085357 -0.32799 -0.087384 0.31869 -0.035252 -0.23285 -0.16921 0.30413 -0.30828 -0.10718 -0.24672 0.033199 0.12743 -0.53933 0.23442 0.14853 0.23574 -0.27985 0.33842 0.24273 0.57668 -0.11483 0.12014 0.3378 -0.81232 -0.17586 -0.012392 0.28794 0.018761 0.2051 0.12659 0.14155 -0.25681 0.66475 0.069081 0.48615 0.18617 -0.12752 0.12507 -0.0080537 0.29442 0.49754 -0.23936 -0.30324 -0.096488 0.15034 -0.50716 -0.096071 -0.23853 -0.17902 0.22145 0.26372 0.21145 -0.26435 -0.088813 -0.4626 0.20681 0.51908 -0.16499 -0.074486 0.27072 -0.39544 0.188 0.26435 -0.12348 0.57365 -0.24056 -0.085237 0.085721
